tree
version=v2
num_class=1
num_tree_per_iteration=1
label_index=0
max_feature_idx=20
objective=regression
feature_names=feature1 feature2 feature3 feature4 feature5 feature6 feature7 feature8 feature9 feature10 feature11 feature12 feature13 feature14 feature15 feature16 feature17 feature18 feature19 feature20 feature21
feature_infos=[6.6405515907773403e-06:1] [0.00020414826443057701:1] [0:1] [0:1] [1.94888615967967e-05:1] [0.00045907219095644904:1] [0:1] [0.000244109525968946:1] [0:1] [0.000286289688653807:1] [7.2341139941884501e-05:1] [1.8487811807029e-05:1] [0:1] [0:1] [0.000201508681355021:1] [5.8932966814157993e-05:1] [9.0663018560979409e-05:1] [0:1] [2.60708035052925e-06:1] [0:1] [0:1]
tree_sizes=3262 3368 1892 3375

Tree=0
num_leaves=40
num_cat=0
split_feature=12 8 3 13 2 11 18 18 6 7 17 6 17 20 13 11 20 15 11 20 17 13 3 20 7 17 15 11 20 13 17 15 12 20 4 4 4 17 17
split_gain=0.595754 0.702546 0.717249 0.771796 0.631056 0.960465 0.644072 0.628537 0.647716 0.958747 0.621668 0.566906 0.562855 0.543534 0.538892 0.538016 0.87975 0.91359 0.566353 1.198 0.839897 0.674474 0.555379 0.533581 0.832763 0.826944 0.50835 0.697631 0.505372 0.505106 0.504438 0.420457 0.418568 0.397202 0.393496 0.751884 0.495167 0.379405 0.450102
threshold=0.079798998987916356 0.8525323928412516 0.094768440583527 0.32229625000920109 0.10195572770776802 0.033002848977687307 0.94098160776321216 0.9920097233072851 0.37036853750716908 0.27923301898634756 0.97728394389599205 0.77418754210810803 0.041025634130028403 0.025756859601598053 0.25450218104566907 0.98411015262012469 0.31862289979542452 0.097121279657883211 0.91728924667318756 0.035935763445357406 0.83539977303965007 0.42201052332669453 0.91540786916680916 0.34501464420267958 0.48159911348560752 0.079887962034495205 0.11927435588309852 0.88680297011995757 0.47337850489168604 0.32942030783439408 0.99999939803707261 0.99945765783595164 0.042007245893313554 0.57505215008370902 0.038530855326586351 0.029489046109398457 0.067610740606364975 0.245006815236642 0.10458108328841952
decision_type=2 2 2 2 2 2 2 2 2 2 2 2 2 2 2 2 2 2 2 2 2 2 2 2 2 2 2 2 2 2 2 2 2 2 2 2 2 2 2
left_child=4 15 3 26 5 11 13 8 9 -4 34 14 -10 29 33 18 -17 -18 30 21 -21 -20 -19 25 -25 -15 27 -3 -28 -6 31 -2 -12 -1 35 -7 -36 38 -5
right_child=1 2 7 37 6 10 -8 -9 12 -11 32 -13 -14 23 -16 16 17 22 19 20 -22 -23 -24 24 -26 -27 28 -29 -30 -31 -32 -33 -34 -35 36 -37 -38 -39 -40
leaf_value=0.49852753655409415 0.50192160151323217 0.51089615301552072 0.50181445617637177 0.50462930910509207 0.50170262507912744 0.50234030234844218 0.49689702068148039 0.49526176885048523 0.49464551247003152 0.50419553479016088 0.5009445224843676 0.49089599368813108 0.50202279244282577 0.50861020272374313 0.49436225340358886 0.49691593682816293 0.4984130471616135 0.5075337668751505 0.49821636030030098 0.50045749688243379 0.50332458860736817 0.48684367445406335 0.49893112552940816 0.50029921049573756 0.50262255394030642 0.49954518623673871 0.49744537149962564 0.50470898138137654 0.5063708734258251 0.51041595912045845 0.49581954702081754 0.49869107193637774 0.49279544901595829 0.50782870685197834 0.50497325835220386 0.49636768464325332 0.50233940178073566 0.50363470110458852 0.4987484945544009
leaf_count=24 36288 83 771 48 39 576 99 32 26 936 40 25 4635 26 30 37 41 176 32 1018 341 22 21 794 750 777 29 101 35 29 34 101 26 22 319 58 405 367 101
internal_value=0 0.00197208 0.0110577 0.0400179 -0.010703 0.00534583 -0.0204383 0.00760061 0.00830311 0.0249684 0.0120295 -0.0888865 0.00219977 -0.0171976 -0.0459172 0.000264189 0.0443358 0.0666368 -5.61324e-05 -0.0196991 -0.0138949 -0.165772 0.0949016 -0.0197512 -0.00887749 -0.0406591 0.0858641 0.112566 0.00909706 0.0709391 0.000705901 0.000819656 -0.0827474 0.0220854 0.0166357 -0.00155481 0.0325649 0.0179832 -0.0245733
internal_count=49314 45275 7164 764 4039 1525 2514 6400 6368 1707 1424 101 4661 2415 76 38111 275 238 37836 1413 1359 54 197 2347 1544 803 248 184 64 68 36423 36389 66 46 1358 634 724 516 149
shrinkage=1


Tree=1
num_leaves=40
num_cat=0
split_feature=13 2 16 16 15 13 15 17 9 16 15 0 0 10 9 8 2 13 13 0 2 6 16 15 6 17 15 13 6 17 13 9 9 2 17 13 16 2 6
split_gain=0.502124 0.749592 0.803405 0.94 0.803959 0.725685 0.840602 0.822295 0.742402 0.706953 0.698139 0.889202 0.718346 0.640429 0.616007 0.761946 0.5954 0.582111 0.581342 1.10127 0.572856 0.565429 0.548328 0.526832 0.801113 0.518144 0.506015 0.501236 0.494875 0.474088 0.448434 0.445768 0.43084 0.496592 0.802273 0.442119 0.425325 0.600013 0.38123
threshold=0.91908175144855464 0.62388900665224412 0.36679621956776703 0.96974238951776714 0.016798876233809702 0.61322756615007112 0.43574585532539206 0.0040081427916104258 0.0083100352567364259 0.98526185283020074 0.032333689503304806 0.43772233589834153 0.26844806618412304 0.99356125553450403 0.94624979017630306 0.87978330610186717 0.97666650486575401 0.44160755666712109 0.66450653065081511 0.62040696018141517 0.32744352034846863 0.22323468602880406 0.015899640132508653 0.99945765783595164 0.93466234789343361 0.99999939803707261 0.81114225707059462 0.046941666746878309 0.06500057254681936 0.13468093392812655 0.98057380994746557 0.6581061219742792 0.73090357293312869 0.28108478308435253 0.65722894074522464 0.97781706590644168 0.73612571419785056 0.13514102062828051 0.087442897330125322
decision_type=2 2 2 2 2 2 2 2 2 2 2 2 2 2 2 2 2 2 2 2 2 2 2 2 2 2 2 2 2 2 2 2 2 2 2 2 2 2 2
left_child=5 2 32 4 -4 7 8 27 -7 14 11 12 -9 16 15 26 22 -13 19 -10 -6 -20 -8 25 -25 -12 -3 -1 -11 -18 -16 -17 33 35 -35 -2 -29 -38 -5
right_child=1 9 3 38 20 6 13 10 18 28 23 17 -14 -15 30 31 29 -19 21 -21 -22 -23 -24 24 -26 -27 -28 36 -30 -31 -32 -33 -34 34 -36 -37 37 -39 -40
leaf_value=-0.010072215936648157 0.0059175962291192269 0.00091212321400203846 -0.010651284370571376 0.01088209167122841 0.00046891492089758412 -0.0054638603854863374 -0.0039174628990494521 0.0014741228943610434 -0.001792762882832602 -0.00020824377942416404 0.00014227383493059235 0.0049727439228043867 -0.0029824375065800272 -0.0074526551671026805 -0.0050332612696696415 0.00085466970620607903 -0.0082539316935416988 0.00039316797257116476 -0.00035934323033797052 0.0013325591075291738 -0.0025626425694221387 0.00054546143755774775 -0.00051903166531333338 -0.0011810960480943323 -0.011591844708132355 -0.0055523915519006557 0.0043234933478392161 0.00091678416190951989 -0.0089848020720167156 -0.0021545987212281121 0.0030740759902350284 0.0063933736110852847 0.0050584860803449859 -0.0039570454620953769 0.0028478968864330996 -0.0010716979365263666 -0.01199504799587885 -0.00081458872175842005 0.0012364582823855537
leaf_count=26 64 2340 25 20 237 61 121 308 966 36 28663 232 128 35 66 54 39 99 2611 398 455 5098 6224 94 23 40 114 51 29 174 23 111 68 99 77 35 21 28 21
internal_value=0 0.0118157 -0.0102599 -0.0284312 -0.0368522 -4.44654e-05 -0.00553741 0.00286293 0.000673903 0.0205807 0.00320623 0.0329825 0.0033155 -0.0141426 0.0230544 0.0258348 -0.0134226 0.0720604 0.00141313 -0.0176166 -0.0304876 0.00478017 -0.0116768 0.00241378 -0.0645531 0.00268676 0.021412 -0.0777502 -0.0824788 -0.0654276 -0.0587621 0.0916141 0.029897 0.0122733 -0.0195977 0.0689327 -0.0455897 -0.112124 0.118833
internal_count=49314 3874 1101 758 717 45440 15727 29713 9134 2773 29587 767 436 6593 2708 2619 6558 331 9073 1364 692 7709 6345 28820 117 28703 2454 126 65 213 89 165 343 275 176 99 100 49 41
shrinkage=0.05


Tree=2
num_leaves=22
num_cat=0
split_feature=14 17 4 0 20 8 2 16 4 19 16 16 4 10 19 18 8 0 19 9 20
split_gain=0.584204 0.839533 0.659969 0.698757 0.577211 0.574125 0.608401 0.486313 0.474642 0.462332 0.711411 1.06916 0.812114 0.493201 0.761832 0.515301 0.447066 0.411841 0.356632 0.503231 0.198791
threshold=0.99766520247992563 0.99999939803707261 0.89378738100121413 0.77827741837036324 0.064612928049597312 0.9215798149980996 0.52088004406922461 0.99999299166428413 0.45627947586932305 0.16182632281764056 0.9417935529624385 0.91792453661618667 0.97782946503240364 0.3057175273980301 0.19379284177840653 0.95416767641371558 0.70189609999688363 0.86885819437194112 0.466291786241323 0.56562698975027614 0.54114599783639805
decision_type=2 2 2 2 2 2 2 2 2 2 2 2 2 2 2 2 2 2 2 2 2
left_child=1 7 3 5 -5 6 20 9 -9 10 11 -1 -12 15 -15 -11 -4 -3 -6 -20 -2
right_child=2 17 16 4 18 -7 -8 8 -10 13 12 -13 -14 14 -16 -17 -18 -19 19 -21 -22
leaf_value=0.00038512125403005669 -0.0018291882143761868 -0.0022950668004341423 -0.0005020197065597451 0.0021423134077340365 -0.00094444031627582666 0.0051119135018732201 -0.0096608225744040238 0.0014212919443490962 -0.0080373699776828296 -0.00037587381008070644 0.0020869217135034974 -0.0026296340801462825 -0.0048041250711927811 -0.001045943266810484 0.00015750527371981976 0.0011908314443703587 0.0084985434331677177 -0.011883016245528347 -0.0027927988290050352 -0.0094572697300463922 0.0043020298983901736
leaf_count=6511 39 24 37 25 28 38 21 21 36 9971 857 308 45 1377 29233 554 22 21 43 83 20
internal_value=0 0.00113638 -0.0395202 -0.0587106 -0.0980928 0.00103012 -0.0470438 0.00126199 -0.091052 0.00136969 0.00847016 0.00497902 0.0348627 3.69372e-05 0.00206736 -0.00586816 0.0570824 -0.135389 -0.120972 -0.143658 0.00498382
internal_count=49314 48958 356 297 179 118 80 48913 57 48856 7721 6819 902 41135 30610 10525 59 45 154 126 59
shrinkage=0.05


Tree=3
num_leaves=40
num_cat=0
split_feature=11 6 2 12 13 13 13 19 7 3 13 8 12 9 3 13 12 18 3 9 9 2 3 13 17 11 19 15 2 2 9 19 17 3 8 2 12 2 3
split_gain=0.565179 0.791287 0.67016 1.00107 0.798814 0.762368 0.966531 0.669035 0.744612 0.664779 0.700356 0.722622 0.602136 0.940731 0.798398 0.570195 0.760436 0.849227 0.986383 0.834665 1.26704 0.73832 0.71394 0.598293 0.923607 0.779637 0.751293 0.709313 0.588535 0.542894 0.811552 0.719605 0.642604 0.743848 0.535465 0.528227 0.610813 0.514023 0.493344
threshold=0.96565685826428005 0.49140938238538051 0.1926025810362795 0.29697967816179605 0.056497395526409054 0.69766259979380219 0.54299326618781907 0.15459944559725752 0.91556000593521214 0.19756247097247354 0.46480288549634652 0.89014791506692004 0.079798998987916356 0.89551764151570712 0.076492113573558909 0.91908175144855464 0.8019470848397886 0.65669865385417314 0.76865692697340415 0.5935497037682631 0.92752816205404109 0.66604516561139804 0.85702954647866314 0.4530853916353661 0.0040081427916104258 0.74731033249358048 0.070873700248349367 0.091305397745326117 0.91439858897729065 0.37717130886844158 0.82459055879555909 0.032955873001454201 0.97143462322210061 0.75646137622285914 0.0043579603820416363 0.114238532249 0.052061627059514511 0.15018292409577802 0.85702954647866314
decision_type=2 2 2 2 2 2 2 2 2 2 2 2 2 2 2 2 2 2 2 2 2 2 2 2 2 2 2 2 2 2 2 2 2 2 2 2 2 2 2
left_child=12 2 4 -4 -2 6 -5 8 -3 10 -9 -12 13 29 -15 23 17 18 -17 21 -21 -18 -19 24 37 26 -25 -26 -27 32 31 -31 34 -34 -1 36 -16 -14 -11
right_child=1 7 3 5 -6 -7 -8 9 -10 38 11 -13 15 14 35 16 19 22 -20 20 -22 -23 -24 25 27 28 -28 -29 -30 30 -32 -33 33 -35 -36 -37 -38 -39 -40
leaf_value=-0.0069549009643702052 -0.00093706759131130057 0.001870779055344377 -0.0032575782083027701 0.0035376602930064574 0.0079813843656059667 0.0071509332980056505 -0.0036424424349844678 -0.00026801239935019498 0.011741191754117608 0.00078377092247984407 -0.012981510069221259 -0.002007130499308308 -0.0089829181957438355 0.0063693708429733917 0.00051808660184698453 0.0037606515377013234 -0.0035177576518885196 -0.00053226055545557954 -0.0075658565376042616 0.0050418310586064097 -0.0045971150617473405 0.001265910976979428 0.0039376904003995848 -0.0011615633712291028 0.0013668820534376996 -0.00093887319933680488 6.4718088619655423e-05 0.0001521035757596294 0.0016072018446856762 -0.011613339646719397 0.0065799915335244602 -0.0019264331019833505 0.0024575167524744758 -0.006666249036159669 0.00012004068114554116 -0.0054025302770444091 -0.0073726008995436132 -0.00071294646408847154 -0.0016240792703288405
leaf_count=27 34 212 86 156 96 77 67 76 21 928 30 30 42 21 105 227 87 1798 21 271 39 1107 94 1352 1296 3899 16398 16509 241 20 27 463 32 74 2820 189 32 34 276
internal_value=0 0.016897 0.0508781 0.0299638 0.112977 0.0572302 0.0276082 0.00574998 0.0552077 -0.00284977 -0.0691218 -0.149886 8.87186e-05 -0.0119649 -0.0616049 0.00114652 0.013119 0.00100863 0.056031 0.0303506 0.0765838 0.018347 -0.00620361 4.95421e-05 0.00434096 -0.00345593 -0.000573731 0.00481051 -0.0158132 -0.0069909 -0.0371194 -0.0465509 -0.00178753 -0.0782381 0.00105889 -0.0737793 -0.0264999 -0.105664 0.00463611
internal_count=49314 2089 516 386 130 300 223 1573 233 1340 136 60 47225 3810 347 43415 3644 2140 248 1504 310 1194 1892 39771 17881 21890 17750 17805 4140 3463 510 483 2953 106 2847 326 137 76 1204
shrinkage=0.05


end of trees

feature importances:
feature14=17
feature18=14
feature3=13
feature10=9
feature16=9
feature4=8
feature17=8
feature21=8
feature7=7
feature5=6
feature9=6
feature12=6
feature13=6
feature20=6
feature1=5
feature19=4
feature8=3
feature11=2
feature15=1

parameters:
[boosting: gbdt]
[objective: regression]
[metric: mse]
[tree_learner: serial]
[device_type: cpu]
[data: ]
[valid: ]
[num_iterations: 100]
[learning_rate: 0.05]
[num_leaves: 40]
[num_threads: 0]
[max_depth: 6]
[min_data_in_leaf: 20]
[min_sum_hessian_in_leaf: 0.001]
[bagging_fraction: 0.8]
[bagging_freq: 7]
[bagging_seed: 213]
[feature_fraction: 0.65]
[feature_fraction_seed: 8758]
[early_stopping_round: 0]
[max_delta_step: 0]
[lambda_l1: 0]
[lambda_l2: 0]
[min_gain_to_split: 0]
[drop_rate: 0.1]
[max_drop: 50]
[skip_drop: 0.5]
[xgboost_dart_mode: 0]
[uniform_drop: 0]
[drop_seed: 12761]
[top_rate: 0.2]
[other_rate: 0.1]
[min_data_per_group: 100]
[max_cat_threshold: 32]
[cat_l2: 10]
[cat_smooth: 10]
[max_cat_to_onehot: 4]
[top_k: 20]
[monotone_constraints: ]
[feature_contri: ]
[forcedsplits_filename: ]
[refit_decay_rate: 0.9]
[verbosity: 1]
[max_bin: 255]
[min_data_in_bin: 3]
[bin_construct_sample_cnt: 200000]
[histogram_pool_size: -1]
[data_random_seed: 4068]
[output_model: LightGBM_model.txt]
[snapshot_freq: -1]
[input_model: ]
[output_result: LightGBM_predict_result.txt]
[initscore_filename: ]
[valid_data_initscores: ]
[pre_partition: 0]
[enable_bundle: 1]
[max_conflict_rate: 0]
[is_enable_sparse: 1]
[sparse_threshold: 0.8]
[use_missing: 1]
[zero_as_missing: 0]
[two_round: 0]
[save_binary: 0]
[enable_load_from_binary_file: 1]
[header: 0]
[label_column: ]
[weight_column: ]
[group_column: ]
[ignore_column: ]
[categorical_feature: ]
[predict_raw_score: 0]
[predict_leaf_index: 0]
[predict_contrib: 0]
[num_iteration_predict: -1]
[pred_early_stop: 0]
[pred_early_stop_freq: 10]
[pred_early_stop_margin: 10]
[convert_model_language: ]
[convert_model: gbdt_prediction.cpp]
[num_class: 1]
[is_unbalance: 0]
[scale_pos_weight: 1]
[sigmoid: 1]
[boost_from_average: 1]
[reg_sqrt: 0]
[alpha: 0.9]
[fair_c: 1]
[poisson_max_delta_step: 0.7]
[tweedie_variance_power: 1.5]
[max_position: 20]
[label_gain: ]
[metric_freq: 1]
[is_provide_training_metric: 0]
[eval_at: ]
[num_machines: 1]
[local_listen_port: 12400]
[time_out: 120]
[machine_list_filename: ]
[machines: ]
[gpu_platform_id: -1]
[gpu_device_id: -1]
[gpu_use_dp: 0]

end of parameters

pandas_categorical:[]
